-1.171542821336771789e-01,-7.859064914040225780e-02,-2.359246524982065996e-01,-3.747730057728370090e-01,4.905446638503906387e-01,-5.817715245671328805e-02
1.368146458626837980e-01,-2.589431143900271515e-01,2.788451141633993199e-02,3.398450669231653509e-01,-1.586256059612513036e-01,-1.107784626746945861e-01
-1.631849420451807475e-01,7.951110536734252998e-02,1.641706227548390407e-01,-4.134873218470141998e-01,1.426369434133557268e-01,-2.670168302410515504e-01
-2.402706459262623495e-01,-8.348025822435845011e-02,3.869797857691336107e-01,2.002189996512703241e-01,1.414798390880130929e-01,-3.250864911494377729e-02
4.271748262848946154e-01,2.889888652362548188e-02,-3.959708845386155085e-01,7.288895975915223036e-02,-2.849369897574614841e-02,1.097811591085027794e-01
-3.779923417396066632e-01,-1.397502384165081879e-01,2.146928555882330614e-01,-1.491526326385287250e-03,-9.157706309675998912e-02,2.111594825222980476e-01
4.791958972567202102e-02,2.136187375621486084e-01,-2.833975480816591785e-02,4.944786173736089030e-02,6.312900833396088984e-01,2.154106244957015859e-01
-1.205266409914529380e-01,6.663183943580608393e-02,-1.627052415473168312e-01,-5.745932683440221900e-02,1.164540537308797197e-01,5.620435884652795477e-02
