-2.277746084816775207e-01,-2.194061116623728935e-01,4.864692441949836077e-02,4.721372102944444427e-01,1.240574922513049128e-02,4.359943461138520160e-01
3.838956468835230673e-02,7.784732014817519197e-02,-1.353176199122341217e-02,-2.216055014566639114e-01,-3.119605949238801745e-01,4.280492228580433656e-01
-2.694830016329019529e-01,2.008042041803317357e-01,-2.525461339797342442e-01,-1.893743561817398113e-01,2.281608996245749754e-01,-1.943683497752402012e-02
3.519186461631268470e-01,2.838082050680906798e-01,1.601321053707940867e-01,-1.524610483823492235e-01,3.353301172971887567e-01,-4.877908717951054962e-01
-3.829094704802449289e-02,1.343959603756371690e-01,1.696471206820676647e-01,4.156533284697971897e-01,4.320366410409726132e-02,3.660501050896463049e-01
3.156933720568149138e-01,5.951788609014665443e-01,-5.234851498393620073e-01,1.573849133498858299e-01,-3.745179274919146484e-01,-2.713471023730986698e-01
2.005441042857564471e-01,3.290924901214783427e-01,-1.581334545775737455e-01,-2.915785053002083460e-01,5.239561144567728146e-01,-3.384489133304422609e-02
5.209179636205904518e-02,3.956179783681320616e-01,-1.130747478062258810e-01,3.535773044890622163e-01,-3.410126421299788128e-17,-1.030236253232366811e-01