2.008633900000000028e-01,-1.703230799999999878e-01,-9.709813999999999945e-02,-3.460841700000000243e-01,1.878807000000000046e-02,2.669276400000000216e-01
3.495106399999999836e-01,-1.453730799999999879e-01,-5.103414499999999743e-01,1.213005600000000017e-01,4.974864999999999843e-02,3.582423499999999872e-01
-1.001934000000000019e-01,3.886749299999999741e-01,-2.652722000000000135e-01,-3.291371300000000000e-01,-1.515711600000000103e-01,-9.810340000000000726e-03
4.392233799999999966e-01,1.052479300000000034e-01,4.690315700000000088e-01,-4.611321400000000237e-01,-8.514373999999999554e-02,9.651353999999999489e-02
4.627800499999999984e-01,3.152607999999999799e-02,-1.188820399999999944e-01,-1.858524799999999866e-01,-3.361372799999999827e-01,-1.630997299999999983e-01
-2.677269500000000191e-01,1.925783500000000092e-01,2.218768200000000024e-01,-4.164178099999999993e-01,-3.535684099999999996e-01,-8.471307000000000142e-02
-2.572325899999999832e-01,2.167613499999999915e-01,-2.090256699999999968e-01,1.029888500000000068e-01,3.151731799999999972e-01,-1.974351099999999970e-01
6.580563000000000384e-02,3.012243199999999899e-01,-4.365627999999999870e-02,-2.247389899999999996e-01,-3.706209899999999835e-01,2.205874200000000063e-01
