-1.279194577000568600e-01,2.085697468687638390e-01,-4.149031596391336008e-01,-2.685690315855991939e-01,-4.001185784865844974e-01,3.902914511245012541e-01
2.409159503498280452e-01,-4.312734943595397663e-01,4.796759490073461141e-01,-5.051066771605785544e-01,2.819499062970857173e-01,2.948117547942248270e-02
4.278595225778087513e-02,-1.158693169608349116e-01,-4.459704866341773211e-01,2.751909032750442519e-01,3.644346459500517055e-01,-2.592528947297876862e-01
2.986647667809011475e-01,-3.602358052028524771e-01,-2.079050477487497939e-01,4.498386963032656727e-01,-3.823345464283811057e-01,3.186417314266731804e-01
-1.770060222976469477e-01,4.775992472622125895e-02,1.655744906124985150e-01,-1.310912841509020987e-01,-2.915692662299252946e-01,-2.146205880907179342e-01
-3.418784668535481686e-01,-3.740569281984997829e-01,-5.261011822040868591e-01,-3.216466202837478527e-02,-9.703981899033195524e-02,1.277938977800086306e-01
1.627684307516136242e-01,-3.484421241570430650e-01,3.221245503614029171e-01,-2.124463910072945522e-02,1.263783386578352652e-01,-3.945231544068703022e-02
3.250935280727236809e-01,-1.308423937788080749e-01,1.911277073987636659e-05,-9.948398238513529897e-06,1.052299615195438458e-03,-1.932085074971103267e-01
