2.507180978714808051e-01,-4.637860182026085631e-01,1.713857469263330158e-01,-1.206973944477708338e-01,3.986513597454288682e-02,-3.126988519709041903e-01,-2.217759398566786500e-01
-4.515178677023970466e-01,-4.283575682042101707e-01,4.036433186812514728e-01,-3.897201258471366114e-01,1.236844188160682034e-01,-1.774307238043632828e-01,3.974809821736465243e-01
1.526367770543906877e-01,-1.102036589714671111e-01,2.073522237681223179e-01,4.671160884220861842e-01,-4.916614395517992508e-01,1.594543792458850973e-01,-5.605010639749581636e-02
4.520115274042693088e-01,2.566758067656175757e-01,1.781926283478296458e-01,9.062444741975506091e-02,-1.641367163771706439e-01,-4.877250230423743060e-01,-5.043048098373535959e-01
3.710554931365701581e-01,-6.144568551625189529e-02,3.241381271099849637e-01,5.286064726737014358e-02,-2.778497429136683183e-01,2.398358594275333266e-01,-1.693997356412688393e-01
-2.518460783416947568e-01,2.573043794607125512e-01,-2.705808854579561107e-01,-1.044842136304625635e-01,1.114605094297701215e-01,-3.885915245540716434e-02,3.642265937801779097e-01
3.863349344960562148e-01,1.512463580641932037e-01,1.151615917119727661e-01,-1.555065017570475439e+00,-1.547605796623663599e+00,-5.462852584496686870e-01,1.276953367483217305e-01
-8.170898661489148784e-01,-2.144800444313066379e-01,-2.578216943220447699e-01,1.693057712671295567e+00,8.987904229770379491e-03,-2.397489167201541649e-01,1.876520060200202178e-01
-3.924053034793645867e-01,-2.937315126627733641e-01,-1.860708122935920694e-01,-6.655517347807492559e-03,1.686656472765234671e+00,-9.315576050097798197e-03,8.092486993071748014e-01
