3.344354395224338194e-01,-8.173725161023302765e-02,-1.484495047506846355e-01,-2.584591847495796083e-02,-1.022446158041232823e-02,1.651768604054591472e-01
7.144100546057841061e-02,3.241161286021754240e-02,-3.351909678845982343e-01,4.409844298353454706e-01,3.304873731165475226e-01,-3.401602531201031177e-02
-8.327566927091178961e-02,-4.749331160623104786e-01,-3.967775241560198562e-01,-4.236301104505204584e-01,2.630276849063279965e-01,-1.331488663171249698e-01
2.482866320337052124e-01,2.647548428469185255e-01,-7.867521659374096532e-02,5.130836931740518914e-01,3.139425071640986054e-01,-2.695204016977557071e-01
2.327305008924133167e-01,-1.171800484153399241e-02,-2.048746336206969942e-01,4.138838332969209111e-01,3.882962177218451244e-02,-2.851780087120736606e-01
-1.375662739489708353e-01,-1.798719087534281919e-02,1.430380621873168778e-01,4.359430082370548964e-01,2.333335622052985225e-01,7.589119194151093539e-02
2.812840296004726071e-01,-2.941266856116508954e-01,3.497585484009179124e-01,9.582588714812469155e-02,1.651362331614553702e-01,-2.611966805350471876e-01
-6.523286959839819099e-02,-2.682617679166479085e-01,1.924432227760063396e-01,2.742756151727182568e-01,-2.137563714053578590e-01,4.573414170596372397e-02
